FANN_FLO_2.1
num_layers=3
learning_rate=0.000010
connection_rate=1.000000
network_type=0
learning_momentum=0.000000
training_algorithm=0
train_error_function=1
train_stop_function=0
cascade_output_change_fraction=0.010000
quickprop_decay=-0.000100
quickprop_mu=1.750000
rprop_increase_factor=1.200000
rprop_decrease_factor=0.500000
rprop_delta_min=0.000000
rprop_delta_max=50.000000
rprop_delta_zero=0.100000
cascade_output_stagnation_epochs=12
cascade_candidate_change_fraction=0.010000
cascade_candidate_stagnation_epochs=12
cascade_max_out_epochs=150
cascade_min_out_epochs=50
cascade_max_cand_epochs=150
cascade_min_cand_epochs=50
cascade_num_candidate_groups=2
bit_fail_limit=3.49999994039535522461e-01
cascade_candidate_limit=1.00000000000000000000e+03
cascade_weight_multiplier=4.00000005960464477539e-01
cascade_activation_functions_count=10
cascade_activation_functions=3 5 7 8 10 11 14 15 16 17 
cascade_activation_steepnesses_count=4
cascade_activation_steepnesses=2.50000000000000000000e-01 5.00000000000000000000e-01 7.50000000000000000000e-01 1.00000000000000000000e+00 
layer_sizes=25 51 3 
scale_included=0
neurons (num_inputs, activation_function, activation_steepness)=(0, 0, 0.00000000000000000000e+00) (0, 0, 0.00000000000000000000e+00) (0, 0, 0.00000000000000000000e+00) (0, 0, 0.00000000000000000000e+00) (0, 0, 0.00000000000000000000e+00) (0, 0, 0.00000000000000000000e+00) (0, 0, 0.00000000000000000000e+00) (0, 0, 0.00000000000000000000e+00) (0, 0, 0.00000000000000000000e+00) (0, 0, 0.00000000000000000000e+00) (0, 0, 0.00000000000000000000e+00) (0, 0, 0.00000000000000000000e+00) (0, 0, 0.00000000000000000000e+00) (0, 0, 0.00000000000000000000e+00) (0, 0, 0.00000000000000000000e+00) (0, 0, 0.00000000000000000000e+00) (0, 0, 0.00000000000000000000e+00) (0, 0, 0.00000000000000000000e+00) (0, 0, 0.00000000000000000000e+00) (0, 0, 0.00000000000000000000e+00) (0, 0, 0.00000000000000000000e+00) (0, 0, 0.00000000000000000000e+00) (0, 0, 0.00000000000000000000e+00) (0, 0, 0.00000000000000000000e+00) (0, 0, 0.00000000000000000000e+00) (25, 3, 5.00000000000000000000e-01) (25, 3, 5.00000000000000000000e-01) (25, 3, 5.00000000000000000000e-01) (25, 3, 5.00000000000000000000e-01) (25, 3, 5.00000000000000000000e-01) (25, 3, 5.00000000000000000000e-01) (25, 3, 5.00000000000000000000e-01) (25, 3, 5.00000000000000000000e-01) (25, 3, 5.00000000000000000000e-01) (25, 3, 5.00000000000000000000e-01) (25, 3, 5.00000000000000000000e-01) (25, 3, 5.00000000000000000000e-01) (25, 3, 5.00000000000000000000e-01) (25, 3, 5.00000000000000000000e-01) (25, 3, 5.00000000000000000000e-01) (25, 3, 5.00000000000000000000e-01) (25, 3, 5.00000000000000000000e-01) (25, 3, 5.00000000000000000000e-01) (25, 3, 5.00000000000000000000e-01) (25, 3, 5.00000000000000000000e-01) (25, 3, 5.00000000000000000000e-01) (25, 3, 5.00000000000000000000e-01) (25, 3, 5.00000000000000000000e-01) (25, 3, 5.00000000000000000000e-01) (25, 3, 5.00000000000000000000e-01) (25, 3, 5.00000000000000000000e-01) (25, 3, 5.00000000000000000000e-01) (25, 3, 5.00000000000000000000e-01) (25, 3, 5.00000000000000000000e-01) (25, 3, 5.00000000000000000000e-01) (25, 3, 5.00000000000000000000e-01) (25, 3, 5.00000000000000000000e-01) (25, 3, 5.00000000000000000000e-01) (25, 3, 5.00000000000000000000e-01) (25, 3, 5.00000000000000000000e-01) (25, 3, 5.00000000000000000000e-01) (25, 3, 5.00000000000000000000e-01) (25, 3, 5.00000000000000000000e-01) (25, 3, 5.00000000000000000000e-01) (25, 3, 5.00000000000000000000e-01) (25, 3, 5.00000000000000000000e-01) (25, 3, 5.00000000000000000000e-01) (25, 3, 5.00000000000000000000e-01) (25, 3, 5.00000000000000000000e-01) (25, 3, 5.00000000000000000000e-01) (25, 3, 5.00000000000000000000e-01) (25, 3, 5.00000000000000000000e-01) (25, 3, 5.00000000000000000000e-01) (25, 3, 5.00000000000000000000e-01) (25, 3, 5.00000000000000000000e-01) (0, 3, 0.00000000000000000000e+00) (51, 0, 5.00000000000000000000e-01) (51, 0, 5.00000000000000000000e-01) (0, 0, 0.00000000000000000000e+00) 
connections (connected_to_neuron, weight)=(0, 1.62680304050445556641e+00) (1, -1.59605669975280761719e+00) (2, -2.45196714997291564941e-01) (3, -6.73247814178466796875e-01) (4, -5.03689944744110107422e-01) (5, 1.81330347061157226562e+00) (6, 1.51105076074600219727e-01) (7, 3.16172719001770019531e-01) (8, -5.99827952682971954346e-02) (9, -6.48903489112854003906e-01) (10, -2.34854891896247863770e-02) (11, -9.08568277955055236816e-02) (12, 3.11986431479454040527e-02) (13, 5.13298287987709045410e-02) (14, 1.10691142082214355469e+00) (15, -4.69553172588348388672e-02) (16, 2.23385483026504516602e-01) (17, 2.40259505808353424072e-02) (18, 3.02202433347702026367e-01) (19, -4.88583333790302276611e-02) (20, -7.70534351468086242676e-02) (21, 5.90235218405723571777e-02) (22, -1.04585504531860351562e+00) (23, 6.98161959648132324219e-01) (24, -6.00159280002117156982e-02) (0, 1.01582014560699462891e+00) (1, -1.44086623191833496094e+00) (2, -2.85116374492645263672e-01) (3, -5.07022976875305175781e-01) (4, -3.02116185426712036133e-01) (5, 9.44132030010223388672e-01) (6, -1.11535163596272468567e-02) (7, 1.37917250394821166992e-01) (8, 4.42522466182708740234e-02) (9, -2.74242937564849853516e-01) (10, 4.10325601696968078613e-02) (11, -8.18701088428497314453e-03) (12, -8.12482088804244995117e-02) (13, -3.98557148873805999756e-02) (14, 4.47695255279541015625e-01) (15, -2.02573299407958984375e-01) (16, 1.59403190016746520996e-01) (17, -1.49132892489433288574e-01) (18, 5.78952021896839141846e-02) (19, -1.20113715529441833496e-02) (20, -2.57392227649688720703e-03) (21, 1.45019739866256713867e-02) (22, -5.76399981975555419922e-01) (23, 4.28817123174667358398e-01) (24, 6.95983916521072387695e-02) (0, 2.40224528312683105469e+00) (1, -2.26428055763244628906e+00) (2, -2.18565300107002258301e-01) (3, -6.29079103469848632812e-01) (4, -6.65562987327575683594e-01) (5, 2.83925533294677734375e+00) (6, 2.06027880311012268066e-01) (7, 4.38984185457229614258e-01) (8, 3.43332529067993164062e-01) (9, -1.02759039402008056641e+00) (10, 1.17565765976905822754e-02) (11, 1.29119157791137695312e-02) (12, -2.27858722209930419922e-02) (13, -9.49807837605476379395e-02) (14, 1.50374686717987060547e+00) (15, 5.72404451668262481689e-02) (16, 9.90674376487731933594e-01) (17, -2.19997584819793701172e-01) (18, 4.50709342956542968750e-01) (19, -9.38039273023605346680e-02) (20, -2.74057611823081970215e-02) (21, 2.06999629735946655273e-02) (22, -1.57703089714050292969e+00) (23, 1.32869517803192138672e+00) (24, 3.34483161568641662598e-02) (0, -2.14399313926696777344e+00) (1, 4.02451801300048828125e+00) (2, 1.19506008923053741455e-01) (3, 7.90572583675384521484e-01) (4, 5.45263051986694335938e-01) (5, -1.32392656803131103516e+00) (6, -6.49503245949745178223e-02) (7, -2.31083706021308898926e-01) (8, -4.50074672698974609375e-01) (9, 5.10717093944549560547e-01) (10, -6.75540119409561157227e-02) (11, 1.57845988869667053223e-02) (12, 1.14069133996963500977e-03) (13, -2.06680893898010253906e-02) (14, 3.84194970130920410156e-01) (15, 6.11884295940399169922e-01) (16, -7.22035229206085205078e-01) (17, 1.95002090930938720703e+00) (18, -3.97612415254116058350e-02) (19, 9.61077138781547546387e-02) (20, -7.79988393187522888184e-02) (21, -2.75822132825851440430e-02) (22, 8.01421105861663818359e-01) (23, -8.08715522289276123047e-01) (24, 1.13460198044776916504e-02) (0, -1.30913233757019042969e+00) (1, 1.71005403995513916016e+00) (2, 1.69485911726951599121e-01) (3, 5.92700362205505371094e-01) (4, 2.61774182319641113281e-01) (5, -1.06258821487426757812e+00) (6, -8.23439657688140869141e-02) (7, -9.15274471044540405273e-02) (8, -1.73572361469268798828e-01) (9, 4.83940780162811279297e-01) (10, -2.93252468109130859375e-02) (11, -6.83877766132354736328e-02) (12, 3.17323133349418640137e-02) (13, 2.85953506827354431152e-02) (14, -3.43606710433959960938e-01) (15, 1.19859680533409118652e-01) (16, -1.04082725942134857178e-01) (17, 3.12057197093963623047e-01) (18, -1.52458161115646362305e-01) (19, -5.96267543733119964600e-02) (20, 7.91949257254600524902e-02) (21, -6.43406063318252563477e-03) (22, 5.66580832004547119141e-01) (23, -4.47712510824203491211e-01) (24, 4.55310307443141937256e-02) (0, -8.30085217952728271484e-01) (1, -1.01108431816101074219e+00) (2, 2.30343684554100036621e-01) (3, 5.98904490470886230469e-01) (4, 6.54810667037963867188e-02) (5, -1.84793496131896972656e+00) (6, -1.83852598071098327637e-01) (7, -2.93972611427307128906e-01) (8, 7.03782021999359130859e-01) (9, 4.18181359767913818359e-01) (10, 9.61178019642829895020e-02) (11, 2.73939445614814758301e-02) (12, 3.13489064574241638184e-02) (13, 8.12186673283576965332e-02) (14, -2.49810695648193359375e+00) (15, -2.95773357152938842773e-01) (16, 7.05241858959197998047e-01) (17, -2.31708765029907226562e+00) (18, -7.23772883415222167969e-01) (19, 8.04887637495994567871e-02) (20, 5.09263649582862854004e-02) (21, -3.42795550823211669922e-02) (22, 1.00182747840881347656e+00) (23, -4.19071882963180541992e-01) (24, 8.64082276821136474609e-02) (0, -9.36214745044708251953e-01) (1, 1.05135822296142578125e+00) (2, 2.48407170176506042480e-01) (3, 1.77460178732872009277e-01) (4, 2.12452366948127746582e-01) (5, -1.85254955291748046875e+00) (6, -2.66804128885269165039e-01) (7, -4.50614243745803833008e-01) (8, -3.83973985910415649414e-01) (9, 5.47840952873229980469e-01) (10, 3.78607884049415588379e-02) (11, 7.13680759072303771973e-02) (12, 2.87479683756828308105e-02) (13, -1.49484574794769287109e-02) (14, -8.30420136451721191406e-01) (15, -9.96221303939819335938e-02) (16, -4.87798154354095458984e-01) (17, 1.41125798225402832031e-01) (18, -3.05538862943649291992e-01) (19, -3.76119911670684814453e-02) (20, -9.83382835984230041504e-02) (21, 8.59214141964912414551e-02) (22, 1.01838386058807373047e+00) (23, -1.05731010437011718750e+00) (24, -6.48530647158622741699e-02) (0, -3.32206189632415771484e-01) (1, 1.96800619363784790039e-01) (2, 1.73452839255332946777e-01) (3, 6.91638216376304626465e-02) (4, 1.84921577572822570801e-01) (5, -9.81025338172912597656e-01) (6, -2.02636331319808959961e-01) (7, -1.10024675726890563965e-01) (8, -6.54448894783854484558e-03) (9, 2.78933495283126831055e-01) (10, 9.56464335322380065918e-02) (11, 8.57414677739143371582e-02) (12, -2.74967849254608154297e-02) (13, 9.64958146214485168457e-02) (14, -7.69380092620849609375e-01) (15, -1.10442817211151123047e-01) (16, -2.66170352697372436523e-01) (17, -6.75060972571372985840e-02) (18, -2.83175945281982421875e-01) (19, -8.05918723344802856445e-02) (20, 3.19521799683570861816e-02) (21, 4.99575361609458923340e-02) (22, 5.63786983489990234375e-01) (23, -3.21695476770401000977e-01) (24, -8.08437988162040710449e-02) (0, -1.32248234748840332031e+00) (1, 2.53478741645812988281e+00) (2, 4.91510704159736633301e-02) (3, 5.47884941101074218750e-01) (4, 4.28590536117553710938e-01) (5, -9.61135685443878173828e-01) (6, -9.37124621123075485229e-03) (7, -1.43874973058700561523e-01) (8, -2.45719268918037414551e-01) (9, 2.72832959890365600586e-01) (10, -3.58026176691055297852e-02) (11, -7.64186680316925048828e-02) (12, -7.34790116548538208008e-02) (13, -4.15792725980281829834e-02) (14, 2.09875330328941345215e-01) (15, 2.59609401226043701172e-01) (16, -5.16146719455718994141e-01) (17, 1.11384499073028564453e+00) (18, -1.82801287155598402023e-03) (19, -4.94370423257350921631e-02) (20, 9.89703014492988586426e-02) (21, -8.62404331564903259277e-02) (22, 6.24158680438995361328e-01) (23, -4.77759540081024169922e-01) (24, -7.42506533861160278320e-02) (0, -1.18276786804199218750e+00) (1, 3.19358205795288085938e+00) (2, 2.30758842080831527710e-02) (3, 4.46327269077301025391e-01) (4, 3.73186290264129638672e-01) (5, -2.50471174716949462891e-01) (6, -6.36542886495590209961e-02) (7, -3.75225283205509185791e-02) (8, -5.80249249935150146484e-01) (9, 2.62526273727416992188e-01) (10, -1.51761695742607116699e-02) (11, -6.02940022945404052734e-02) (12, 1.71346664428710937500e-02) (13, 7.87957981228828430176e-02) (14, 9.99560832977294921875e-01) (15, 5.65006315708160400391e-01) (16, -8.57906877994537353516e-01) (17, 1.91804063320159912109e+00) (18, 2.48056232929229736328e-01) (19, 1.41389667987823486328e-03) (20, 8.83355960249900817871e-02) (21, -8.99372994899749755859e-02) (22, 3.07381510734558105469e-01) (23, -4.08515095710754394531e-01) (24, 4.14320155978202819824e-02) (0, -2.19144964218139648438e+00) (1, 3.03757357597351074219e+00) (2, 3.92933428287506103516e-01) (3, 1.01761746406555175781e+00) (4, 5.84439039230346679688e-01) (5, -1.61995577812194824219e+00) (6, -6.35547563433647155762e-02) (7, -2.82347232103347778320e-01) (8, -1.18219487369060516357e-01) (9, 6.16901516914367675781e-01) (10, -9.13356542587280273438e-02) (11, 5.07021918892860412598e-02) (12, 6.80670663714408874512e-02) (13, 2.49386206269264221191e-02) (14, -4.70983028411865234375e-01) (15, 3.60994130373001098633e-01) (16, -4.59414690732955932617e-01) (17, 8.07241439819335937500e-01) (18, -2.98910886049270629883e-01) (19, 8.85582491755485534668e-02) (20, 6.97239562869071960449e-02) (21, 5.57713285088539123535e-02) (22, 9.03343915939331054688e-01) (23, -7.50110805034637451172e-01) (24, 7.77979707345366477966e-03) (0, -1.10790908336639404297e+00) (1, 1.45689558982849121094e+00) (2, 2.39764079451560974121e-01) (3, 5.48758745193481445312e-01) (4, 3.65971773862838745117e-01) (5, -1.19748103618621826172e+00) (6, -1.22887708246707916260e-01) (7, -2.19527155160903930664e-01) (8, -1.15075469017028808594e-01) (9, 4.08813714981079101562e-01) (10, -6.41754269599914550781e-02) (11, 9.29671898484230041504e-02) (12, -1.92548334598541259766e-02) (13, 2.22681388258934020996e-02) (14, -5.10308623313903808594e-01) (15, 2.00919240713119506836e-01) (16, -1.91726103425025939941e-01) (17, 2.39844441413879394531e-01) (18, -1.43760815262794494629e-01) (19, -4.41288910806179046631e-02) (20, -4.96554635465145111084e-02) (21, -3.78067381680011749268e-02) (22, 6.44121944904327392578e-01) (23, -6.05879187583923339844e-01) (24, -7.48514104634523391724e-03) (0, 2.36464381217956542969e+00) (1, -1.93192958831787109375e+00) (2, -3.96296769380569458008e-01) (3, -6.25940084457397460938e-01) (4, -3.88984441757202148438e-01) (5, 2.43848657608032226562e+00) (6, 1.54143407940864562988e-01) (7, 4.42225456237792968750e-01) (8, 3.24458330869674682617e-01) (9, -8.66725027561187744141e-01) (10, -3.57252955436706542969e-02) (11, 3.22979167103767395020e-02) (12, -9.83547121286392211914e-02) (13, 4.34846952557563781738e-02) (14, 1.37777149677276611328e+00) (15, 2.51017928123474121094e-01) (16, 9.98961150646209716797e-01) (17, -6.89372867345809936523e-02) (18, 5.21230876445770263672e-01) (19, 1.57741457223892211914e-03) (20, -1.31687968969345092773e-02) (21, 4.87859472632408142090e-02) (22, -1.48333919048309326172e+00) (23, 1.31438636779785156250e+00) (24, -2.17288522981107234955e-03) (0, -1.14237964153289794922e-01) (1, -1.39757156372070312500e+00) (2, 2.12215155363082885742e-01) (3, -7.51561298966407775879e-02) (4, -1.06852926313877105713e-01) (5, -3.08198750019073486328e-01) (6, -1.04799441993236541748e-01) (7, -3.32884006202220916748e-02) (8, 1.19489982724189758301e-01) (9, 3.88726592063903808594e-02) (10, -2.86029055714607238770e-02) (11, -4.31874953210353851318e-02) (12, 1.26581788063049316406e-02) (13, -8.48004296422004699707e-02) (14, -6.10320806503295898438e-01) (15, -4.98562216758728027344e-01) (16, 2.97084003686904907227e-01) (17, -1.16552174091339111328e+00) (18, -2.69364058971405029297e-01) (19, -7.70410299301147460938e-02) (20, -9.18785631656646728516e-02) (21, 8.55759531259536743164e-03) (22, 3.04694473743438720703e-02) (23, 2.17540413141250610352e-02) (24, -2.35665533691644668579e-02) (0, -1.99574269354343414307e-02) (1, -1.52631890773773193359e+00) (2, 7.57841169834136962891e-02) (3, -8.32805410027503967285e-02) (4, -1.85545951128005981445e-01) (5, -6.67141750454902648926e-02) (6, -6.65801838040351867676e-02) (7, -2.89273522794246673584e-02) (8, 7.11971297860145568848e-02) (9, 6.60516694188117980957e-02) (10, 3.34542468190193176270e-02) (11, 3.54707762598991394043e-02) (12, 8.69575217366218566895e-02) (13, -7.82463699579238891602e-02) (14, -4.78401035070419311523e-01) (15, -4.95938777923583984375e-01) (16, 3.07215571403503417969e-01) (17, -1.01441299915313720703e+00) (18, -4.04165461659431457520e-02) (19, 8.35029780864715576172e-03) (20, -7.62846618890762329102e-02) (21, -8.66215899586677551270e-02) (22, 1.12666703760623931885e-01) (23, -2.00144033879041671753e-02) (24, -6.54943063855171203613e-02) (0, -2.28103590011596679688e+00) (1, 2.37310099601745605469e+00) (2, 4.22849506139755249023e-01) (3, 8.75724017620086669922e-01) (4, 5.95235168933868408203e-01) (5, -2.13672566413879394531e+00) (6, -1.83200597763061523438e-01) (7, -3.64481300115585327148e-01) (8, -1.40481695532798767090e-01) (9, 6.90592706203460693359e-01) (10, -6.54038786888122558594e-03) (11, 6.79668113589286804199e-02) (12, -2.20104604959487915039e-02) (13, 4.93430420756340026855e-02) (14, -1.01366603374481201172e+00) (15, 6.51642456650733947754e-02) (16, -4.21424955129623413086e-01) (17, 4.36964035034179687500e-01) (18, -4.05170232057571411133e-01) (19, 4.55091893672943115234e-03) (20, -7.73369967937469482422e-02) (21, 2.46053561568260192871e-02) (22, 1.28400170803070068359e+00) (23, -9.71447944641113281250e-01) (24, 1.82214304804801940918e-02) (0, -6.59013569355010986328e-01) (1, 3.29641044139862060547e-01) (2, 2.26018369197845458984e-01) (3, 3.48845332860946655273e-01) (4, 3.84431891143321990967e-02) (5, -7.10162699222564697266e-01) (6, -6.99564069509506225586e-02) (7, -1.05202041566371917725e-01) (8, 1.06084823608398437500e-01) (9, 2.61617273092269897461e-01) (10, 6.19362518191337585449e-02) (11, 2.95766219496726989746e-02) (12, -6.53907358646392822266e-02) (13, -6.39213696122169494629e-02) (14, -5.68060994148254394531e-01) (15, -5.40827065706253051758e-02) (16, 1.46457210183143615723e-01) (17, -3.55930238962173461914e-01) (18, -1.32699310779571533203e-01) (19, -2.11187154054641723633e-02) (20, 9.34648886322975158691e-02) (21, -7.74075463414192199707e-02) (22, 4.80718076229095458984e-01) (23, -2.04702377319335937500e-01) (24, -3.42238359153270721436e-02) (0, -2.34511756896972656250e+00) (1, 9.08020555973052978516e-01) (2, 7.89496243000030517578e-01) (3, 8.34877192974090576172e-01) (4, 7.85740911960601806641e-01) (5, -3.60117411613464355469e+00) (6, -3.35453748703002929688e-01) (7, -7.28226602077484130859e-01) (8, -3.09862822294235229492e-01) (9, 1.22686862945556640625e+00) (10, -1.61807313561439514160e-02) (11, -9.29983258247375488281e-02) (12, 6.85196593403816223145e-02) (13, -9.52913165092468261719e-02) (14, -2.43195891380310058594e+00) (15, -4.06557738780975341797e-01) (16, -1.35025966167449951172e+00) (17, -4.64049786329269409180e-01) (18, -7.01170980930328369141e-01) (19, -9.72764417529106140137e-02) (20, -7.90805369615554809570e-02) (21, -9.12970155477523803711e-02) (22, 2.09247875213623046875e+00) (23, -1.28504979610443115234e+00) (24, 7.41756781935691833496e-02) (0, -4.97776299715042114258e-01) (1, 4.21947687864303588867e-01) (2, 1.84193044900894165039e-01) (3, 2.69977986812591552734e-01) (4, 1.19167909026145935059e-01) (5, -4.06336665153503417969e-01) (6, -9.47720259428024291992e-02) (7, -1.78379379212856292725e-02) (8, -6.65950998663902282715e-02) (9, 1.30711823701858520508e-01) (10, -4.24128547310829162598e-02) (11, 6.34005889296531677246e-02) (12, -2.70346254110336303711e-02) (13, 1.52994617819786071777e-02) (14, -2.60043501853942871094e-01) (15, 2.60715931653976440430e-02) (16, 6.58991411328315734863e-02) (17, -7.08002597093582153320e-02) (18, -5.91346807777881622314e-02) (19, -9.61725786328315734863e-02) (20, 2.78000012040138244629e-02) (21, 9.15761068463325500488e-02) (22, 2.76464283466339111328e-01) (23, -1.21876239776611328125e-01) (24, 1.26129277050495147705e-02) (0, 7.49267578125000000000e-01) (1, -1.07438588142395019531e+00) (2, -6.74812868237495422363e-02) (3, -2.75875449180603027344e-01) (4, -1.20454847812652587891e-01) (5, 4.83823776245117187500e-01) (6, 6.19237683713436126709e-02) (7, 9.22263935208320617676e-02) (8, 8.50101038813591003418e-02) (9, -1.96659862995147705078e-01) (10, -4.77778390049934387207e-02) (11, 5.62597140669822692871e-02) (12, 2.84736230969429016113e-02) (13, 9.15429070591926574707e-02) (14, -3.34972031414508819580e-02) (15, -2.45423734188079833984e-01) (16, 1.16246789693832397461e-01) (17, -3.13012808561325073242e-01) (18, 4.77548092603683471680e-02) (19, 6.44295141100883483887e-02) (20, 7.80106112360954284668e-02) (21, -5.87537363171577453613e-02) (22, -2.21226334571838378906e-01) (23, 3.35962325334548950195e-01) (24, 4.65535782277584075928e-02) (0, 8.79747569561004638672e-02) (1, 1.26241707801818847656e+00) (2, -1.25991001725196838379e-01) (3, 2.66233593225479125977e-01) (4, -7.98112675547599792480e-02) (5, 8.93067717552185058594e-01) (6, 1.21392779052257537842e-01) (7, 1.72448396682739257812e-01) (8, -1.93035230040550231934e-01) (9, -3.20066988468170166016e-01) (10, -5.54095618426799774170e-02) (11, -3.26217263936996459961e-02) (12, 3.31024602055549621582e-02) (13, 6.00276961922645568848e-02) (14, 1.50613152980804443359e+00) (15, 2.23689809441566467285e-01) (16, -4.27926391363143920898e-01) (17, 1.54348194599151611328e+00) (18, 4.22293931245803833008e-01) (19, -9.62072461843490600586e-02) (20, 2.70534381270408630371e-02) (21, 8.24544802308082580566e-02) (22, -5.09439706802368164062e-01) (23, 1.57919391989707946777e-01) (24, -1.31551008671522140503e-02) (0, 9.67843294143676757812e-01) (1, -1.23752856254577636719e+00) (2, -1.90581902861595153809e-01) (3, -4.06899094581604003906e-01) (4, -2.92367100715637207031e-01) (5, 9.64900553226470947266e-01) (6, 1.42862468957901000977e-01) (7, 2.44972959160804748535e-01) (8, -1.18192702531814575195e-01) (9, -3.48834931850433349609e-01) (10, -2.40972042083740234375e-02) (11, -3.65362614393234252930e-02) (12, 9.71681550145149230957e-02) (13, 6.19680359959602355957e-02) (14, 5.04354059696197509766e-01) (15, -2.34351515769958496094e-01) (16, -5.81052415072917938232e-02) (17, 9.50536504387855529785e-03) (18, 2.37763702869415283203e-01) (19, 6.65861591696739196777e-02) (20, -3.72542291879653930664e-02) (21, 6.92972168326377868652e-02) (22, -4.70664590597152709961e-01) (23, 4.51818168163299560547e-01) (24, 1.99797637760639190674e-02) (0, -1.57409918308258056641e+00) (1, 3.48168182373046875000e+00) (2, 1.12680494785308837891e-01) (3, 5.90586543083190917969e-01) (4, 3.90168130397796630859e-01) (5, -7.77102231979370117188e-01) (6, -1.22738465666770935059e-01) (7, -1.41969934105873107910e-01) (8, -4.56951349973678588867e-01) (9, 3.29118341207504272461e-01) (10, 5.44518604874610900879e-02) (11, 9.24609974026679992676e-02) (12, 8.20806100964546203613e-02) (13, 3.93674448132514953613e-02) (14, 4.95438754558563232422e-01) (15, 4.53733980655670166016e-01) (16, -8.50783050060272216797e-01) (17, 1.78385138511657714844e+00) (18, 4.05479446053504943848e-02) (19, 7.72382542490959167480e-02) (20, 3.97203862667083740234e-03) (21, -2.09571868181228637695e-02) (22, 6.33353352546691894531e-01) (23, -7.71876394748687744141e-01) (24, -7.39219337701797485352e-02) (0, 3.27678829431533813477e-01) (1, -2.43650004267692565918e-01) (2, 2.25877910852432250977e-02) (3, -1.01513162255287170410e-01) (4, -1.11397944390773773193e-01) (5, 3.09280544519424438477e-01) (6, 3.97065728902816772461e-02) (7, 1.01813010871410369873e-01) (8, -1.19850672781467437744e-01) (9, -4.43764068186283111572e-02) (10, 6.20347931981086730957e-02) (11, -9.22156125307083129883e-02) (12, -9.96968671679496765137e-02) (13, -5.16002625226974487305e-02) (14, 2.58452951908111572266e-01) (15, -8.49405154585838317871e-02) (16, -1.37801453471183776855e-01) (17, 1.39711245894432067871e-01) (18, -1.18487430736422538757e-02) (19, 4.22190353274345397949e-02) (20, 2.33343616127967834473e-02) (21, -1.56069993972778320312e-02) (22, -9.94546711444854736328e-02) (23, 1.81526079773902893066e-01) (24, 4.97611500322818756104e-02) (0, 1.55305302143096923828e+00) (1, -2.40815377235412597656e+00) (2, -2.85715192556381225586e-01) (3, -6.27922892570495605469e-01) (4, -3.97780358791351318359e-01) (5, 1.11669576168060302734e+00) (6, 7.78281614184379577637e-02) (7, 2.56344735622406005859e-01) (8, 1.06888957321643829346e-01) (9, -3.33836615085601806641e-01) (10, -7.96386748552322387695e-02) (11, 6.51443526148796081543e-02) (12, 9.97371971607208251953e-03) (13, 7.50894472002983093262e-02) (14, 3.44860345125198364258e-01) (15, -3.75367939472198486328e-01) (16, 3.65568041801452636719e-01) (17, -6.04440212249755859375e-01) (18, 8.96911695599555969238e-02) (19, 8.55239704251289367676e-02) (20, 1.66195482015609741211e-02) (21, -8.21633636951446533203e-03) (22, -5.83480179309844970703e-01) (23, 4.96680289506912231445e-01) (24, 7.91402254253625869751e-03) (0, 3.11875969171524047852e-01) (1, -1.07522296905517578125e+00) (2, 1.90858289599418640137e-01) (3, -2.07214280962944030762e-01) (4, 4.34491299092769622803e-02) (5, -4.59778875112533569336e-01) (6, -1.47038295865058898926e-01) (7, -1.71830520033836364746e-01) (8, 2.79063999652862548828e-01) (9, 1.66800960898399353027e-01) (10, 4.88261505961418151855e-02) (11, -7.44364410638809204102e-02) (12, -8.97573158144950866699e-02) (13, 2.07183808088302612305e-02) (14, -9.60756897926330566406e-01) (15, -3.09905588626861572266e-01) (16, 2.57304430007934570312e-01) (17, -1.05361998081207275391e+00) (18, -2.04555466771125793457e-01) (19, 1.61691531538963317871e-02) (20, -7.62531533837318420410e-02) (21, 7.57154151797294616699e-02) (22, 2.06220716238021850586e-01) (23, -1.61912947893142700195e-01) (24, -6.71458691358566284180e-02) (0, 8.57286512851715087891e-01) (1, -2.51286721229553222656e+00) (2, 6.09354302287101745605e-02) (3, -3.94181758165359497070e-01) (4, -2.18585401773452758789e-01) (5, 1.89065471291542053223e-01) (6, 7.73131176829338073730e-02) (7, 5.73468469083309173584e-02) (8, 3.48371535539627075195e-01) (9, -2.30081230401992797852e-01) (10, -2.58998125791549682617e-02) (11, 6.76426514983177185059e-02) (12, -3.13172489404678344727e-02) (13, 2.02975869178771972656e-02) (14, -7.45781898498535156250e-01) (15, -4.96609717607498168945e-01) (16, 6.25545322895050048828e-01) (17, -1.54438984394073486328e+00) (18, -2.42494106292724609375e-01) (19, 8.98421183228492736816e-02) (20, -6.05543516576290130615e-02) (21, -7.13702663779258728027e-02) (22, -1.71714216470718383789e-01) (23, 3.53508353233337402344e-01) (24, 4.60719838738441467285e-02) (0, -1.94372951984405517578e+00) (1, 3.47468900680541992188e+00) (2, 2.05072879791259765625e-01) (3, 7.71301507949829101562e-01) (4, 5.22138893604278564453e-01) (5, -1.14715468883514404297e+00) (6, -6.95502385497093200684e-02) (7, -2.34305381774902343750e-01) (8, -4.24738794565200805664e-01) (9, 5.58673858642578125000e-01) (10, -8.40094536542892456055e-02) (11, 1.44013017416000366211e-02) (12, 2.41822600364685058594e-02) (13, 4.00043800473213195801e-02) (14, 2.66487091779708862305e-01) (15, 5.24841487407684326172e-01) (16, -7.60582685470581054688e-01) (17, 1.52357363700866699219e+00) (18, -8.93135368824005126953e-02) (19, 3.44021692872047424316e-02) (20, -5.38619123399257659912e-02) (21, -5.12452572584152221680e-02) (22, 6.28824949264526367188e-01) (23, -8.62471282482147216797e-01) (24, -3.12033798545598983765e-02) (0, -6.09932601451873779297e-01) (1, 1.05887305736541748047e+00) (2, 8.38595703244209289551e-02) (3, 3.24828684329986572266e-01) (4, 2.00333818793296813965e-01) (5, -5.37349045276641845703e-01) (6, 2.81708575785160064697e-02) (7, -1.39900073409080505371e-01) (8, -6.95439800620079040527e-02) (9, 1.61621630191802978516e-01) (10, 5.17265871167182922363e-02) (11, 2.33843103051185607910e-02) (12, -8.90330299735069274902e-02) (13, -9.83493477106094360352e-02) (14, -7.17839971184730529785e-02) (15, 1.82717740535736083984e-01) (16, -2.97571808099746704102e-01) (17, 4.74201053380966186523e-01) (18, -2.75786984711885452271e-02) (19, 5.76455816626548767090e-02) (20, -4.10469733178615570068e-02) (21, -2.84023955464363098145e-02) (22, 3.56873959302902221680e-01) (23, -2.48196586966514587402e-01) (24, 1.01738777011632919312e-02) (0, 1.08357691764831542969e+00) (1, -1.63800346851348876953e+00) (2, -1.84144780039787292480e-01) (3, -5.87393999099731445312e-01) (4, -4.78780001401901245117e-01) (5, 1.45872330665588378906e+00) (6, 1.74344956874847412109e-01) (7, 2.62855529785156250000e-01) (8, -9.18589904904365539551e-02) (9, -6.21100187301635742188e-01) (10, -9.77201759815216064453e-02) (11, 7.03676715493202209473e-02) (12, 9.87168923020362854004e-02) (13, -6.44641593098640441895e-02) (14, 1.11866867542266845703e+00) (15, -3.08213680982589721680e-01) (16, 2.29312792420387268066e-01) (17, 5.34640066325664520264e-03) (18, 2.92647182941436767578e-01) (19, 8.89130905270576477051e-02) (20, -3.43042165040969848633e-02) (21, -4.11892421543598175049e-02) (22, -9.90487694740295410156e-01) (23, 6.23605310916900634766e-01) (24, 5.99513985216617584229e-02) (0, 1.21011114120483398438e+00) (1, -5.49676418304443359375e-01) (2, -4.53762114048004150391e-01) (3, -3.71829926967620849609e-01) (4, -3.44036430120468139648e-01) (5, 2.24052786827087402344e+00) (6, 1.91958725452423095703e-01) (7, 3.44924807548522949219e-01) (8, 1.52779549360275268555e-01) (9, -6.83055281639099121094e-01) (10, -5.42246997356414794922e-02) (11, 2.94796153903007507324e-02) (12, -4.51731756329536437988e-02) (13, 1.84357389807701110840e-02) (14, 1.49298024177551269531e+00) (15, 2.66428589820861816406e-01) (16, 6.84809029102325439453e-01) (17, 5.01113414764404296875e-01) (18, 4.35069888830184936523e-01) (19, 5.62514141201972961426e-02) (20, 6.32701739668846130371e-02) (21, 5.13618960976600646973e-02) (22, -1.16409170627593994141e+00) (23, 6.77103161811828613281e-01) (24, -6.68482556939125061035e-02) (0, 1.77920237183570861816e-01) (1, -1.89106035232543945312e+00) (2, 2.10816428065299987793e-01) (3, 5.32590039074420928955e-02) (4, -1.06142856180667877197e-01) (5, -1.17546260356903076172e+00) (6, -1.34785935282707214355e-01) (7, -2.14470103383064270020e-01) (8, 5.46228170394897460938e-01) (9, 2.19719991087913513184e-01) (10, 2.86450460553169250488e-02) (11, -7.37849250435829162598e-02) (12, -1.87664479017257690430e-02) (13, 5.14894947409629821777e-02) (14, -1.97690582275390625000e+00) (15, -4.42524969577789306641e-01) (16, 7.36070454120635986328e-01) (17, -2.23766660690307617188e+00) (18, -5.12521207332611083984e-01) (19, 1.57005339860916137695e-02) (20, 1.22993960976600646973e-02) (21, 7.00038745999336242676e-02) (22, 5.05852401256561279297e-01) (23, -1.96969304233789443970e-02) (24, -4.85977493226528167725e-02) (0, -1.39411020278930664062e+00) (1, 2.44425153732299804688e+00) (2, 8.54950323700904846191e-02) (3, 6.64302647113800048828e-01) (4, 4.07093346118927001953e-01) (5, -1.11128354072570800781e+00) (6, -1.27106860280036926270e-01) (7, -2.46503844857215881348e-01) (8, -2.19881325960159301758e-01) (9, 3.14546018838882446289e-01) (10, -9.72379744052886962891e-03) (11, 7.86546841263771057129e-02) (12, 1.07706561684608459473e-02) (13, -9.12762731313705444336e-02) (14, -7.00247064232826232910e-02) (15, 3.44607621431350708008e-01) (16, -3.87149244546890258789e-01) (17, 9.04914438724517822266e-01) (18, -1.44920140504837036133e-01) (19, -1.11417323350906372070e-02) (20, -8.36113393306732177734e-02) (21, -3.58504801988601684570e-02) (22, 6.01752460002899169922e-01) (23, -6.35551631450653076172e-01) (24, 5.16184568405151367188e-02) (0, 3.49618911743164062500e-01) (1, -6.49627566337585449219e-01) (2, -3.83236184716224670410e-02) (3, -2.51430958509445190430e-01) (4, -9.62214246392250061035e-02) (5, 4.07083481550216674805e-01) (6, -3.78435626626014709473e-02) (7, -2.22476609051227569580e-02) (8, 1.28156885504722595215e-01) (9, -5.91716282069683074951e-02) (10, 5.03156259655952453613e-02) (11, -8.98199230432510375977e-02) (12, -6.43031373620033264160e-02) (13, 6.58330246806144714355e-02) (14, 9.44927260279655456543e-02) (15, -1.60834655165672302246e-01) (16, 6.25135377049446105957e-02) (17, -2.15904086828231811523e-01) (18, 8.75436738133430480957e-02) (19, -3.51670533418655395508e-02) (20, 7.80964419245719909668e-02) (21, 3.95886600017547607422e-03) (22, -2.91161924600601196289e-01) (23, 1.33246108889579772949e-01) (24, 3.50568555295467376709e-02) (0, 9.36338961124420166016e-01) (1, -2.75713396072387695312e+00) (2, 1.36727944016456604004e-01) (3, -2.73993521928787231445e-01) (4, -2.60052919387817382812e-01) (5, 3.95131975412368774414e-01) (6, 1.12283833324909210205e-01) (7, 9.92608442902565002441e-02) (8, 3.45653980970382690430e-01) (9, -2.80529171228408813477e-01) (10, -3.38456034660339355469e-02) (11, -5.38933612406253814697e-02) (12, -5.18464446067810058594e-02) (13, -9.02420282363891601562e-03) (14, -7.43120908737182617188e-01) (15, -5.92428147792816162109e-01) (16, 5.95800220966339111328e-01) (17, -1.69592416286468505859e+00) (18, -1.90992817282676696777e-01) (19, -9.28755626082420349121e-02) (20, 6.82686045765876770020e-02) (21, -5.77461719512939453125e-03) (22, -2.79850900173187255859e-01) (23, 3.41090232133865356445e-01) (24, -5.23136109113693237305e-02) (0, 4.94398742914199829102e-01) (1, -1.57584011554718017578e+00) (2, 9.64122638106346130371e-02) (3, -1.42842203378677368164e-01) (4, -1.53770357370376586914e-01) (5, -4.36013847589492797852e-01) (6, -1.40413597226142883301e-01) (7, -1.92406982183456420898e-01) (8, 3.86663436889648437500e-01) (9, 1.59752398729324340820e-01) (10, 6.87986239790916442871e-02) (11, -6.21864274144172668457e-02) (12, 7.75180235505104064941e-02) (13, 1.12984925508499145508e-02) (14, -1.21341228485107421875e+00) (15, -1.26643121242523193359e-01) (16, 5.80869436264038085938e-01) (17, -1.41041898727416992188e+00) (18, -3.33258479833602905273e-01) (19, -3.15713137388229370117e-02) (20, 7.83790424466133117676e-02) (21, -4.18399535119533538818e-02) (22, 1.90284773707389831543e-01) (23, -1.92498937249183654785e-02) (24, 9.12568904459476470947e-03) (0, 6.94310247898101806641e-01) (1, -5.50854384899139404297e-01) (2, -2.61006236076354980469e-01) (3, -2.44948536157608032227e-01) (4, -2.00010091066360473633e-01) (5, 6.54127836227416992188e-01) (6, 7.58031979203224182129e-02) (7, 1.38160213828086853027e-01) (8, -1.63056939840316772461e-01) (9, -2.89732068777084350586e-01) (10, -4.75093983113765716553e-02) (11, -8.81630182266235351562e-03) (12, -4.02585268020629882812e-02) (13, -3.54528054594993591309e-02) (14, 5.78364074230194091797e-01) (15, -1.07934691011905670166e-01) (16, -1.09597809612751007080e-01) (17, 8.92058312892913818359e-02) (18, 9.31778550148010253906e-02) (19, 4.46443036198616027832e-02) (20, 2.66187861561775207520e-02) (21, -6.94647505879402160645e-02) (22, -3.61793220043182373047e-01) (23, 2.20146402716636657715e-01) (24, -2.70274691283702850342e-02) (0, 1.13698697090148925781e+00) (1, -1.08362603187561035156e+00) (2, -2.11934104561805725098e-01) (3, -4.98629122972488403320e-01) (4, -2.82782465219497680664e-01) (5, 9.94385719299316406250e-01) (6, 1.84045229107141494751e-02) (7, 1.21362283825874328613e-01) (8, -1.38449385762214660645e-01) (9, -2.49608486890792846680e-01) (10, 1.18334665894508361816e-02) (11, -4.35649603605270385742e-03) (12, 5.31359016895294189453e-03) (13, -6.44489228725433349609e-02) (14, 7.08215594291687011719e-01) (15, -7.33919367194175720215e-02) (16, -4.78777512907981872559e-02) (17, 2.77795523405075073242e-01) (18, 1.30334034562110900879e-01) (19, 5.25888726115226745605e-02) (20, 6.84383586049079895020e-02) (21, -3.82789447903633117676e-02) (22, -4.92819696664810180664e-01) (23, 4.49732244014739990234e-01) (24, -2.51854700036346912384e-03) (0, 1.30481374263763427734e+00) (1, -5.79022802412509918213e-02) (2, -9.02619957923889160156e-02) (3, -4.71405774354934692383e-01) (4, 5.02657033503055572510e-02) (5, 2.05691313743591308594e+00) (6, 1.74504503607749938965e-01) (7, 3.47762644290924072266e-01) (8, -2.34326019883155822754e-01) (9, -5.90946435928344726562e-01) (10, 2.84839645028114318848e-02) (11, 7.38058313727378845215e-02) (12, 6.05386123061180114746e-02) (13, 7.84778669476509094238e-02) (14, 2.29174351692199707031e+00) (15, 2.81637459993362426758e-01) (16, -1.96724459528923034668e-01) (17, 1.68272602558135986328e+00) (18, 6.01992309093475341797e-01) (19, 2.58624032139778137207e-02) (20, -8.70223566889762878418e-02) (21, -9.32523086667060852051e-02) (22, -1.21959519386291503906e+00) (23, 6.16881966590881347656e-01) (24, -9.17815789580345153809e-02) (0, -9.03409242630004882812e-01) (1, 1.15779489278793334961e-01) (2, 3.12100172042846679688e-01) (3, 5.58598279953002929688e-01) (4, 2.31250301003456115723e-01) (5, -1.14566564559936523438e+00) (6, -1.32056161761283874512e-01) (7, -2.27644637227058410645e-01) (8, 2.65901267528533935547e-01) (9, 3.95178556442260742188e-01) (10, -3.88586334884166717529e-02) (11, -1.06357038021087646484e-03) (12, 7.88848921656608581543e-02) (13, 1.76893621683120727539e-02) (14, -1.28717851638793945312e+00) (15, -9.63724628090858459473e-02) (16, 2.81068891286849975586e-01) (17, -1.08494114875793457031e+00) (18, -3.76368254423141479492e-01) (19, -7.53488093614578247070e-02) (20, -7.63216614723205566406e-02) (21, -5.94210512936115264893e-02) (22, 6.55127882957458496094e-01) (23, -3.04167628288269042969e-01) (24, 3.58421169221401214600e-03) (0, -2.54083901643753051758e-01) (1, -4.00608271360397338867e-01) (2, 2.81816810369491577148e-01) (3, -2.37164631485939025879e-01) (4, 1.98085367679595947266e-01) (5, -1.29905331134796142578e+00) (6, -2.43656486272811889648e-01) (7, -2.53158926963806152344e-01) (8, 4.54082578420639038086e-01) (9, 4.44487035274505615234e-01) (10, -1.80073603987693786621e-02) (11, 6.19293674826622009277e-02) (12, -4.33437786996364593506e-02) (13, 4.87326607108116149902e-02) (14, -1.97094202041625976562e+00) (15, 2.01106116175651550293e-01) (16, 2.47973099350929260254e-01) (17, -1.41046178340911865234e+00) (18, -3.97073805332183837891e-01) (19, 2.75633856654167175293e-02) (20, 9.03518870472908020020e-02) (21, -6.44310563802719116211e-03) (22, 7.66358792781829833984e-01) (23, -9.21083837747573852539e-02) (24, 7.79856368899345397949e-02) (0, 2.00896191596984863281e+00) (1, -2.63372230529785156250e+00) (2, -4.28762137889862060547e-01) (3, -8.43196809291839599609e-01) (4, -4.30697172880172729492e-01) (5, 1.68767082691192626953e+00) (6, 2.12512984871864318848e-01) (7, 2.75113910436630249023e-01) (8, -1.96610148996114730835e-02) (9, -6.75867617130279541016e-01) (10, -3.90326194465160369873e-02) (11, 5.15184476971626281738e-02) (12, -6.98736906051635742188e-02) (13, 8.68537202477455139160e-02) (14, 7.93243408203125000000e-01) (15, -4.26960140466690063477e-01) (16, 1.77535668015480041504e-01) (17, -3.46592396497726440430e-01) (18, 2.33943134546279907227e-01) (19, -8.24209898710250854492e-02) (20, 6.53337314724922180176e-02) (21, -4.72288206219673156738e-02) (22, -1.01242518424987792969e+00) (23, 7.17852115631103515625e-01) (24, -7.53552541136741638184e-02) (0, -9.17946219444274902344e-01) (1, 2.11041712760925292969e+00) (2, 5.67274056375026702881e-02) (3, 4.02989178895950317383e-01) (4, 2.74565935134887695312e-01) (5, -4.65044915676116943359e-01) (6, -1.16090439260005950928e-02) (7, -3.57062965631484985352e-02) (8, -3.23683828115463256836e-01) (9, 1.63229838013648986816e-01) (10, -1.29082798957824707031e-02) (11, -6.84047937393188476562e-02) (12, 9.46668013930320739746e-02) (13, 9.42641124129295349121e-02) (14, 4.24975991249084472656e-01) (15, 1.73632755875587463379e-01) (16, -5.54493546485900878906e-01) (17, 1.10425901412963867188e+00) (18, 5.25782024487853050232e-03) (19, -5.79147897660732269287e-02) (20, 5.80875054001808166504e-02) (21, -6.25266283750534057617e-02) (22, 3.09896856546401977539e-01) (23, -4.68051940202713012695e-01) (24, -2.07411637529730796814e-03) (0, -1.29405125975608825684e-01) (1, -1.04028618335723876953e+00) (2, 2.56158143281936645508e-01) (3, 1.96713373064994812012e-01) (4, 5.59893175959587097168e-02) (5, -5.40457785129547119141e-01) (6, -5.42561709880828857422e-02) (7, -1.43099933862686157227e-01) (8, 2.48148337006568908691e-01) (9, 1.16914123296737670898e-01) (10, 7.72278383374214172363e-02) (11, 8.62042829394340515137e-02) (12, 6.68742135167121887207e-02) (13, 7.28913396596908569336e-03) (14, -9.38019156455993652344e-01) (15, -3.71329069137573242188e-01) (16, 4.00221765041351318359e-01) (17, -1.00012564659118652344e+00) (18, -3.52032095193862915039e-01) (19, 8.86449739336967468262e-02) (20, 9.13375094532966613770e-02) (21, -9.43963900208473205566e-02) (22, 2.83657848834991455078e-01) (23, -2.41332992911338806152e-01) (24, -6.07369467616081237793e-02) (0, -7.02054560184478759766e-01) (1, 2.99025297164916992188e-01) (2, 5.20935803651809692383e-02) (3, 2.55877524614334106445e-01) (4, -4.03294414281845092773e-02) (5, -4.69609528779983520508e-01) (6, -1.75295416265726089478e-02) (7, -1.15619897842407226562e-01) (8, 3.37171778082847595215e-02) (9, 1.44520267844200134277e-01) (10, -9.00760143995285034180e-02) (11, 2.84463167190551757812e-05) (12, 9.23474654555320739746e-02) (13, -2.30434089899063110352e-02) (14, -4.19608712196350097656e-01) (15, -1.50060325860977172852e-01) (16, -2.59418636560440063477e-02) (17, -3.07948321104049682617e-01) (18, -6.10194653272628784180e-02) (19, 6.14735558629035949707e-02) (20, -2.43513137102127075195e-02) (21, -9.36794951558113098145e-02) (22, 3.47298711538314819336e-01) (23, -2.84524887800216674805e-01) (24, -9.16416943073272705078e-02) (0, 5.56216716766357421875e-01) (1, 2.04871654510498046875e-01) (2, -3.43140572309494018555e-01) (3, -1.26552786678075790405e-02) (4, -2.64518529176712036133e-01) (5, 1.64488649368286132812e+00) (6, 1.77433177828788757324e-01) (7, 4.07530903816223144531e-01) (8, -1.78644508123397827148e-02) (9, -5.68608403205871582031e-01) (10, 9.22026708722114562988e-02) (11, 4.71206754446029663086e-03) (12, 9.66345742344856262207e-02) (13, -5.08984550833702087402e-02) (14, 1.46523714065551757812e+00) (15, 1.96063965559005737305e-01) (16, 5.41283041238784790039e-02) (17, 9.29376780986785888672e-01) (18, 3.92774343490600585938e-01) (19, 3.59821245074272155762e-02) (20, 2.23494023084640502930e-02) (21, 2.43010371923446655273e-03) (22, -8.23170602321624755859e-01) (23, 6.67668938636779785156e-01) (24, 1.41370610799640417099e-03) (0, -7.04324960708618164062e-01) (1, 1.56915593147277832031e+00) (2, 5.47788403928279876709e-02) (3, 3.05577844381332397461e-01) (4, 2.76558369398117065430e-01) (5, -3.82103174924850463867e-01) (6, -8.20564180612564086914e-02) (7, 1.89483761787414550781e-02) (8, -2.05175057053565979004e-01) (9, 1.21616281569004058838e-01) (10, 7.78439268469810485840e-02) (11, 8.32726582884788513184e-02) (12, 1.47071927785873413086e-02) (13, 4.25172075629234313965e-02) (14, 2.88963437080383300781e-01) (15, 2.58587270975112915039e-01) (16, -3.20365637540817260742e-01) (17, 7.26197063922882080078e-01) (18, 1.16148374974727630615e-01) (19, 8.38214084506034851074e-02) (20, -5.19144386053085327148e-02) (21, -3.94254885613918304443e-02) (22, 1.94141030311584472656e-01) (23, -2.65727639198303222656e-01) (24, 3.11327707022428512573e-02) (0, -7.25617408752441406250e-01) (1, 1.85265123844146728516e+00) (2, -4.05781790614128112793e-02) (3, 3.35313051939010620117e-01) (4, 1.01087078452110290527e-01) (5, -2.45420113205909729004e-01) (6, 1.94923591334372758865e-03) (7, 4.60156202316284179688e-02) (8, -3.56699883937835693359e-01) (9, 7.45998248457908630371e-02) (10, 5.86833581328392028809e-02) (11, 5.85029050707817077637e-02) (12, -1.98759883642196655273e-02) (13, 3.53476181626319885254e-02) (14, 4.59010958671569824219e-01) (15, 3.08419764041900634766e-01) (16, -3.81942093372344970703e-01) (17, 9.91438567638397216797e-01) (18, 1.83522328734397888184e-02) (19, -4.42912578582763671875e-02) (20, 8.50953236222267150879e-02) (21, -7.88611769676208496094e-02) (22, 2.76028245687484741211e-01) (23, -3.86384844779968261719e-01) (24, -9.62228477001190185547e-02) (0, 1.96599733829498291016e+00) (1, -3.83444237709045410156e+00) (2, -1.82265266776084899902e-01) (3, -8.25761258602142333984e-01) (4, -5.99476516246795654297e-01) (5, 1.22207427024841308594e+00) (6, 1.98259398341178894043e-01) (7, 2.03382670879364013672e-01) (8, 3.67434591054916381836e-01) (9, -4.12997812032699584961e-01) (10, 3.12506482005119323730e-02) (11, 6.33029416203498840332e-02) (12, -1.44426822662353515625e-02) (13, 9.04333591461181640625e-03) (14, -4.49672728776931762695e-01) (15, -5.47529101371765136719e-01) (16, 7.13393509387969970703e-01) (17, -1.65766668319702148438e+00) (18, 8.36634263396263122559e-02) (19, -9.69256907701492309570e-02) (20, -4.72317747771739959717e-02) (21, 1.43051743507385253906e-02) (22, -6.74140214920043945312e-01) (23, 7.52433598041534423828e-01) (24, 4.99815829098224639893e-02) (0, 2.09922862052917480469e+00) (1, -3.73412752151489257812e+00) (2, -1.38431325554847717285e-01) (3, -7.64119088649749755859e-01) (4, -5.45559346675872802734e-01) (5, 1.42149829864501953125e+00) (6, 1.60855725407600402832e-01) (7, 2.74421960115432739258e-01) (8, 3.08920860290527343750e-01) (9, -4.86252158880233764648e-01) (10, 9.33444574475288391113e-02) (11, -6.61480873823165893555e-02) (12, 4.96762022376060485840e-02) (13, 2.32570543885231018066e-02) (14, -1.34219571948051452637e-01) (15, -5.28556466102600097656e-01) (16, 6.15843474864959716797e-01) (17, -1.57028162479400634766e+00) (18, -3.72046269476413726807e-02) (19, 6.35510310530662536621e-02) (20, -6.85338079929351806641e-02) (21, 1.38426423072814941406e-02) (22, -8.73235702514648437500e-01) (23, 8.67813766002655029297e-01) (24, 7.65253556892275810242e-03) (25, -1.07543155550956726074e-01) (26, -5.15152513980865478516e-02) (27, -1.75997287034988403320e-01) (28, 4.31220978498458862305e-02) (29, 5.81531003117561340332e-02) (30, 1.95293173193931579590e-01) (31, 1.63894653320312500000e-01) (32, 1.09497062861919403076e-01) (33, 3.45160961151123046875e-02) (34, 5.38182854652404785156e-02) (35, 8.79434198141098022461e-02) (36, 7.26676136255264282227e-02) (37, -1.22591488063335418701e-01) (38, -4.30003479123115539551e-02) (39, -3.25128138065338134766e-02) (40, 1.14017717540264129639e-01) (41, 4.91229370236396789551e-02) (42, 3.17486703395843505859e-01) (43, 1.75889655947685241699e-02) (44, -2.37515345215797424316e-02) (45, -1.10317878425121307373e-01) (46, -6.02110438048839569092e-02) (47, 2.00578700751066207886e-02) (48, -1.89613942056894302368e-02) (49, -6.01717159152030944824e-02) (50, 8.31865966320037841797e-02) (51, 7.38820340484380722046e-03) (52, 4.57379072904586791992e-02) (53, 1.78795680403709411621e-02) (54, -1.26926466822624206543e-01) (55, -2.66438573598861694336e-01) (56, 1.00962020456790924072e-01) (57, 4.52667772769927978516e-02) (58, -1.68718267232179641724e-02) (59, -2.57701911032199859619e-02) (60, 8.80094394087791442871e-02) (61, -4.52502556145191192627e-02) (62, -6.68020397424697875977e-02) (63, -2.15128779411315917969e-01) (64, 7.62830525636672973633e-02) (65, 1.79718792438507080078e-01) (66, -9.60323438048362731934e-02) (67, 1.09640108421444892883e-02) (68, 2.91157197207212448120e-02) (69, 1.86333172023296356201e-02) (70, -2.11578249931335449219e-01) (71, 7.48295709490776062012e-03) (72, -7.65191763639450073242e-03) (73, -4.26044538617134094238e-02) (74, -5.94532117247581481934e-02) (75, 8.46769511699676513672e-02) (25, -2.59998105466365814209e-02) (26, -2.02796086668968200684e-02) (27, -3.56260612607002258301e-02) (28, 1.14951856434345245361e-01) (29, 3.68904098868370056152e-02) (30, -1.07704564929008483887e-01) (31, 6.73753842711448669434e-02) (32, 4.18335311114788055420e-02) (33, 7.11994394659996032715e-02) (34, 7.10298269987106323242e-02) (35, 6.36312589049339294434e-02) (36, 3.37057635188102722168e-02) (37, -3.34192365407943725586e-02) (38, 4.73553827032446861267e-03) (39, 2.75331805460155010223e-03) (40, 5.87297603487968444824e-02) (41, -1.34098867420107126236e-03) (42, 5.75785450637340545654e-02) (43, 1.48621872067451477051e-02) (44, -2.39327345043420791626e-02) (45, 4.89957854151725769043e-02) (46, -1.02390525862574577332e-02) (47, 1.08585000038146972656e-01) (48, 2.87894695065915584564e-03) (49, -4.68583405017852783203e-02) (50, -4.05042283236980438232e-02) (51, -8.01469683647155761719e-02) (52, 9.78992059826850891113e-02) (53, 3.76732423901557922363e-02) (54, -8.61744675785303115845e-03) (55, -6.47474154829978942871e-02) (56, -7.15764760971069335938e-02) (57, 6.64917603135108947754e-02) (58, -1.49852512404322624207e-02) (59, -4.84860688447952270508e-02) (60, -1.07607707381248474121e-01) (61, 1.06456130743026733398e-03) (62, -2.04139389097690582275e-03) (63, 9.77803990244865417480e-02) (64, -2.67196111381053924561e-02) (65, -7.76390805840492248535e-02) (66, -3.52797955274581909180e-02) (67, 7.35228136181831359863e-02) (68, -2.21714209765195846558e-02) (69, -2.86198910325765609741e-02) (70, -1.56244533136487007141e-02) (71, 5.41936680674552917480e-02) (72, 4.94624227285385131836e-02) (73, -9.74268391728401184082e-02) (74, -8.85308161377906799316e-02) (75, -4.63576689362525939941e-02) 
